8 64
book1 -0.201739 0.036469 -0.101686 -0.201902 -0.259813 0.13759 0.0777011 -0.129843 0.0965836 -0.109719 -0.0770473 -0.136694 0.0724692 -0.0497294 -0.248175 -0.24348 -0.120511 -0.0619192 0.193494 -0.0701535 0.245353 0.207954 0.238718 -0.211793 0.233047 0.0734396 0.205993 0.220674 -0.277884 0.0916651 -0.0017809 -0.273345 -0.0360813 0.0747382 -0.12205 -0.00529383 -0.00793909 -0.250627 0.0290787 -0.180231 0.0349145 -0.226173 0.0362725 -0.175481 0.133347 0.113025 -0.240757 -0.207432 0.215321 -0.225468 0.00527985 0.296459 0.160691 -0.0388675 -0.205934 0.0688096 0.303448 0.310998 -0.00111687 0.203768 0.133787 -0.285763 -0.275856 -0.206884
how -0.48615 -0.103181 -0.101783 0.476669 -0.0311938 0.417352 0.310259 -0.76239 -0.342698 0.26437 0.298387 0.175165 -0.400053 -0.225727 -0.0725878 -0.353873 0.283957 -0.363819 -0.0940669 0.556233 0.612493 0.502559 0.239471 -0.110662 0.227881 0.768092 0.835834 0.443142 -0.0060001 0.0237853 0.0995454 -0.148136 0.221446 0.523813 -0.356654 1.05855 -0.22974 -0.390408 -0.0046844 0.63703 -0.16637 -0.232348 0.127009 -0.183847 0.328486 0.3167 -0.0116688 -0.558463 -0.347961 -0.631786 -0.384806 0.565374 0.396824 0.237241 -0.413584 0.362426 -0.204135 -0.142363 -0.0627269 0.315916 1.09089 0.419394 -0.176234 -0.382851
old 0.00390267 -0.00205213 -0.00321624 -0.00418341 0.00132013 -0.00399355 -0.00543141 0.00362732 -0.00585195 0.00458547 -0.00524841 0.00382924 -0.00664797 0.00703288 -0.00699173 0.000336928 -0.00505921 -0.00406153 0.00465309 0.00363523 0.00244631 0.00730321 0.00217904 0.00405836 -0.00635187 -0.00570465 0.000315782 -0.00659012 -0.00672021 -0.00461476 -0.000602805 0.00499496 0.0011456 0.00399345 -0.00700096 -0.00534676 0.0078124 -0.00461987 0.00609306 -0.00585206 0.00777811 -0.00696785 0.00578969 -0.00668236 -0.00774747 0.00661046 0.00146707 -0.00499418 -0.00526357 -0.00169234 0.00645354 0.00499524 -0.00220163 0.000820078 0.00124109 -0.000741002 0.00292793 -0.00625562 0.000481375 0.00402022 -0.00305789 0.00769107 0.00120267 0.00590022
are 0.278455 0.0953471 -0.647139 0.332867 0.399676 0.713857 0.708571 0.44847 0.541255 0.0564194 0.317727 0.55607 0.252064 -0.414561 -0.745106 0.345813 0.516786 -0.486904 0.266576 -0.448118 0.256285 0.149674 0.779951 -0.817198 0.11038 -0.0795245 -0.538827 0.40908 -0.642992 -0.12082 0.157318 0.0369464 -0.0502336 0.101178 -0.156461 -0.33166 -0.152687 0.150627 0.14157 -0.167742 0.0574944 -0.131701 -0.137947 -0.81299 -0.129576 0.616218 0.123821 -0.580511 0.154074 -0.200601 0.0939194 0.385599 0.540071 -0.248678 0.249503 -0.84882 0.228108 0.643708 0.241362 0.176115 -0.0334221 -0.723869 -0.188421 0.0312078
you 0.00360515 -0.00268165 0.00375685 -0.00465293 0.00657679 0.00288682 0.00239266 -0.00379273 0.00050689 -0.00644307 -0.00374224 0.00589662 0.0029082 -0.00634781 -0.00607382 -0.00216249 0.00119829 0.00145643 0.00260245 -0.00330035 0.00430886 -0.00330657 -0.00266184 -0.00484764 0.00756818 -0.00775658 0.00511549 -0.00263314 -0.00487186 -0.000992234 0.0071662 0.00654579 0.00413862 0.00311055 -0.00591964 0.0029029 -0.00181513 0.00428552 0.00692268 0.00650426 0.00565496 -0.00463206 0.00458839 0.000750657 -0.00316737 0.00632707 0.00640067 0.00584342 -2.90011e-05 0.00119062 -0.00526943 -0.00353264 0.00569655 -0.000118768 -0.000567779 0.00545222 -6.28532e-05 -0.00326479 -0.00499342 0.00287779 0.00355547 -0.00563972 0.00161108 -0.000118411
book2 0.243574 0.135129 -0.260477 -0.446056 -0.211176 -0.499726 -0.374178 -0.401341 -0.631899 0.151678 0.108635 -0.1585 0.383004 -0.118687 -0.230114 -0.527943 -0.302984 0.49178 0.149115 -0.305819 -0.387572 0.247759 0.0488665 -0.46254 0.348607 0.267113 0.0742481 -0.291396 -0.316266 0.0993654 0.305935 -1.32385 0.662427 0.431788 -0.736404 0.0485885 0.368955 0.140575 -0.780686 -0.447951 0.50253 -1.05838 0.42705 -0.113737 -0.152527 0.372983 -0.255349 -0.0186177 0.43683 -0.492564 0.674834 0.477191 0.141526 -0.27557 0.417315 0.314085 0.17655 -0.146654 0.425353 0.246614 -0.232296 -0.267983 0.173922 0.0185313
book3 0.459705 0.0118524 -0.49245 0.687263 0.668405 0.149842 0.287626 -0.219645 -0.507674 0.565814 0.673718 0.696126 0.0117786 -0.426806 -0.206135 0.14787 0.608414 -0.120009 -0.187487 0.0082122 -0.188702 0.185023 0.240409 -0.524513 -0.0175599 0.510494 -0.185286 -0.0789161 -0.0844025 -0.195218 0.398881 -0.420547 0.661139 0.580035 -0.614596 0.55089 0.00761812 0.468879 -0.513259 0.398453 0.202036 -0.513144 0.213266 -0.405785 -0.254501 0.675386 0.415688 -0.368345 -0.289127 -0.445402 0.259466 0.366675 0.413224 -0.119723 0.620815 -0.27259 -0.507737 -0.414324 0.427147 0.081463 0.288966 0.20643 0.456765 0.210651
tall 0.000513219 -0.00539494 0.00086559 -0.0075847 -0.00187165 -0.00184114 -0.0030405 0.0037095 -0.00374305 0.00233842 0.000817444 0.00655611 0.00290604 0.0048404 0.00309138 -0.00293827 0.00227952 -0.00771868 0.000514997 0.00537359 0.00185073 0.00222957 0.000289295 -0.00155142 -0.00215384 0.0034198 0.00471714 0.00277832 -0.00542382 -0.00729855 -0.00681937 0.0029019 -0.00488099 0.00185872 0.00312971 0.00105986 -0.00779491 -0.00772329 -0.00304314 -0.00372546 0.00242763 0.0055868 -0.00498186 -0.00247884 0.0026147 0.00592202 0.00239539 -0.00291829 0.00601585 -0.00490211 -0.0053572 5.40779e-05 0.00513996 0.00274459 0.00631516 -0.00482638 -0.0016481 0.00321979 0.00576444 0.00074058 0.00373374 0.00675757 -0.00417002 0.00666525
